tree
version=v4
num_class=1
num_tree_per_iteration=1
label_index=0
max_feature_idx=3
objective=binary sigmoid:1
feature_names=sbert_sim bm25_score overlap_score jaccard_score
feature_infos=[-0.048096175999999997:0.9835893] [0:59.490634083108958] [0:1] [0:0.83333333319444447]
tree_sizes=3406 3431 3442 3445 3445 3455 3449 3457 3471 3471 3466 3460 3464 3473 3478 3464 3459 3476 3488 3470

Tree=0
num_leaves=31
num_cat=0
split_feature=0 2 0 1 0 1 0 0 2 2 0 1 0 1 0 0 1 0 0 1 2 2 3 1 2 0 1 0 0 3
split_gain=47710.4 12682.3 4588.21 3140.25 2929.28 1230.37 945.685 896.661 638.781 574.435 492.322 470.243 412.334 375.064 254.381 211.181 190.971 178.967 168.367 161.306 118.765 117.716 116.422 117.394 111.595 102.744 101.448 108.056 99.248 84.308
threshold=0.5350123750000001 0.47727272727272729 0.60193020000000008 11.659545103593862 0.4741111300000001 13.087339532073008 0.29281872500000006 0.32794295000000001 0.63068181818181823 0.38750000000000007 0.57042970000000015 9.3430458171627269 0.64530660000000006 9.8039723525418392 0.44227664000000005 0.33311529500000009 17.174209813364094 0.50535035000000017 0.50329804500000008 13.475135559406041 0.58571428571428574 0.47727272727272729 0.23076923075591718 16.147995551530915 0.17424242424242423 0.36752751500000008 9.7398739450127074 0.34703682000000008 0.36752751500000008 0.11764705881833912
decision_type=2 2 2 2 2 2 2 2 2 2 2 2 2 2 2 2 2 2 2 2 2 2 2 2 2 2 2 2 2 2
left_child=1 4 5 7 6 10 -1 -3 22 14 21 18 19 17 15 -8 25 -6 -9 -4 -7 -2 23 -5 -17 -10 27 -11 -13 -28
right_child=2 3 12 8 13 20 9 11 16 26 -12 28 -14 -15 -16 24 -18 -19 -20 -21 -22 -23 -24 -25 -26 -27 29 -29 -30 -31
leaf_value=-0.96375149269985239 -1.0130695997183865 -0.91936516760216935 -0.94334871651671315 -1.0025973743875447 -1.0723397302109492 -0.95931055795679609 -1.0775485117076653 -1.062635084049034 -0.90970746047000361 -1.0238630814898064 -0.9720800842936943 -0.96136601080108697 -0.90603410891704228 -1.0254530925318195 -1.0957977645527903 -1.1193374125741298 -0.92525896501502658 -1.0529824832366528 -1.0271746922143017 -0.91679036944001302 -0.93194172565560451 -0.98973160631875434 -1.0679908020069426 -0.96666691551253225 -1.1076249585635629 -0.96685132772088578 -1.0409356353561101 -1.0871177148696614 -1.0237765696734482 -1.0891518393810298
leaf_weight=122.06190344691277 1931.4280416071415 149.43677097558975 1469.9928216636181 947.80786046385765 2935.4855900704861 652.49681162834167 420.56043508648872 2120.2395960986614 85.687082141637802 71.062151849269867 1689.3667407631874 66.937172889709473 3439.6707287430763 703.68405225872993 3315.546208947897 4364.4160348773003 527.43492630124092 2012.802627146244 397.49805229902267 935.62043607234955 1009.8700708448887 750.18382975459099 55.499727606773376 299.06103822588921 3808.2937788665295 959.24531129002571 289.49858069419861 1352.8058552742004 1317.5560449957848 131.99935159087181
leaf_count=323 6381 307 3490 2999 12018 1688 1751 8406 165 245 4658 175 6455 2441 14611 20603 1125 7721 1388 1890 2244 2245 224 803 17383 2578 1064 5805 4541 570
internal_value=-1.03196 -1.06933 -0.948711 -1.0112 -1.08995 -0.979297 -1.10231 -1.03956 -0.971236 -1.10354 -0.993222 -1.04417 -0.91714 -1.05961 -1.10756 -1.1121 -0.949785 -1.06447 -1.05704 -0.933019 -0.942684 -1.00654 -0.997133 -0.993979 -1.11388 -0.962165 -1.07758 -1.08396 -1.02076 -1.05604
internal_weight=38333.2 26454.6 11878.6 6926.4 19528.2 6033.35 13876.2 4051.67 2874.74 13754.2 4370.98 3902.23 5845.28 5651.97 11908.8 8593.27 1572.37 4948.29 2517.74 2405.61 1662.37 2681.61 1302.37 1246.87 8172.71 1044.93 1845.37 1423.87 1384.49 421.498
internal_count=136297 107246 29051 22711 84535 17216 62355 14817 7894 62032 13284 14510 11835 22180 54348 39737 3868 19739 9794 5380 3932 8626 4026 3802 37986 2743 7684 6050 4716 1634
is_linear=0
shrinkage=1


Tree=1
num_leaves=31
num_cat=0
split_feature=0 2 0 0 1 1 0 0 2 2 0 1 1 0 0 1 0 0 1 0 1 0 1 0 3 1 2 0 0 3
split_gain=38152.1 10741 3360.81 2584.92 2476.91 853.587 801.336 704.741 525.547 493.111 443.406 363.88 314.335 270.546 184.565 167.27 153.024 144.551 143.705 141.118 135.629 117.885 97.126 96.253 94.9598 96.3969 92.7188 82.8195 79.0345 76.0943
threshold=0.5350123750000001 0.47727272727272729 0.59265003500000002 0.4741111300000001 11.577931908569553 13.087339532073008 0.29281872500000006 0.32144333000000008 0.31666666666666671 0.63068181818181823 0.63474210000000009 9.1052391816457234 9.8039723525418392 0.56433806000000009 0.44227664000000005 12.754641039033009 0.50535035000000017 0.33714982500000007 17.819441796337902 0.49545556000000007 9.9402945574169923 0.34394753000000006 17.452254373843207 0.37340185000000009 0.19399641576478699 14.895710417466359 0.63068181818181823 0.36406986500000005 0.36406986500000005 0.12499999999544266
decision_type=2 2 2 2 2 2 2 2 2 2 2 2 2 2 2 2 2 2 2 2 2 2 2 2 2 2 2 2 2 2
left_child=1 3 5 6 7 13 -1 -3 14 24 15 19 16 26 17 -4 -5 -8 28 23 21 -10 -7 -9 25 -6 -2 -13 -11 -22
right_child=2 4 10 12 9 22 8 11 20 18 -12 27 -14 -15 -16 -17 -18 -19 -20 -21 29 -23 -24 -25 -26 -27 -28 -29 -30 -31
leaf_value=0.11997942899623813 0.078189852510167385 0.16285773458899466 0.12939174533435738 0.024636958045675499 0.085745323989885158 0.12502789128955144 0.01217202724323526 0.065073253021064037 0.053054061316647111 0.16704815322814612 0.16548558963549795 0.12161991413412672 0.067017428252954467 0.10682452017023436 0.00050391110442097957 0.15448976705090167 0.042370718356960907 -0.016646586373881091 0.15381269255595362 0.061804036099380955 0.042792309053565458 0.0049907492735953296 0.15048425802189527 0.02818369341241659 0.055472980123879981 0.11501124414256236 0.11559724592326844 0.066556628291378095 0.1182932598428299 0.0026153330436199697
leaf_weight=130.12265861034393 2195.1015645861626 143.68782603740692 1606.3731175065041 2973.9292992651463 805.09877854585648 900.92996707558632 464.76690489053726 196.91681435704231 133.2813429236412 89.81150521337986 4318.0898817628622 71.60706952214241 729.16368505358696 1773.4899718463421 2695.7243986278772 1131.4563697129488 2058.4525963366032 6823.0476076751947 499.70011699199677 497.85260125994682 464.93589334189892 2980.4839021414518 641.50162695348263 1733.1704279184341 163.89747382700443 432.53575927019119 179.17150689661503 1473.5786156952381 1116.1135755777359 157.86893452703953
leaf_count=323 6920 259 3736 12018 2447 2134 1972 679 483 155 7531 177 2441 4788 11941 2182 7721 32164 968 1715 1759 13019 1293 6875 571 1119 467 4947 2799 694
internal_value=0.061221 0.0273901 0.132449 0.00819176 0.0795103 0.103859 -0.00351607 0.0540749 -0.00468731 0.113211 0.155505 0.0501408 0.0363363 0.0920493 -0.0106741 0.139764 0.0318908 -0.0148087 0.131267 0.0380695 0.0113084 0.00704805 0.135615 0.0319473 0.0912372 0.0959733 0.0810128 0.0691084 0.121924 0.0326082
internal_weight=39581.9 26835.7 12746.1 19611.8 7223.97 5690.19 13850.2 4116.81 13720.1 3107.16 7055.92 3973.13 5761.55 4147.76 9983.54 2737.83 5032.38 7287.81 1705.63 2427.94 3736.57 3113.77 1542.43 1930.09 1401.53 1237.63 2374.27 1545.19 1205.93 622.805
internal_count=136297 107246 29051 84535 22711 15602 62355 14652 62032 8059 13449 14393 22180 12175 46077 5918 19739 34136 3922 9269 15955 13502 3427 7554 4137 3566 7387 5124 2954 2453
is_linear=0
shrinkage=0.05


Tree=2
num_leaves=31
num_cat=0
split_feature=0 2 0 0 1 0 1 0 2 2 0 1 1 0 2 0 2 1 0 0 0 1 0 1 0 1 3 0 3 3
split_gain=31351.1 9193.94 2624.75 2295.09 2013.06 695.071 685.217 580.71 482.55 384.024 379.003 325.59 288.776 177.819 174.484 163.635 154.289 134.047 128.77 115.239 104.165 98.4391 80.3528 79.9993 79.2919 79.5035 75.2671 72.3366 71.047 66.7674
threshold=0.5350123750000001 0.47727272727272729 0.59000533000000011 0.47080983500000001 11.659545103593862 0.29281872500000006 10.690874665199383 0.33714982500000007 0.38750000000000007 0.68333333333333346 0.63474210000000009 9.1052391816457234 11.025940538008788 0.48983731500000005 0.17424242424242423 0.56241095000000019 0.58571428571428574 12.62708201936622 0.49545556000000007 0.33311529500000009 0.43479516000000001 16.392368977271964 0.44663212000000002 14.895710417466359 0.34703682000000008 9.6684245785180281 0.18181818180578507 0.34394753000000006 0.11764705881833912 0.019419306183727354
decision_type=2 2 2 2 2 2 2 2 2 2 2 2 2 2 2 2 2 2 2 2 2 2 2 2 2 2 2 2 2 2
left_child=1 3 6 5 7 29 15 -3 14 21 17 18 13 -5 22 -2 -8 -4 -9 -16 -21 26 27 -11 -10 -26 -6 -7 -27 -1
right_child=2 4 10 12 9 8 16 11 24 23 -12 -13 -14 -15 19 -17 -18 -19 -20 20 -22 -23 -24 -25 25 28 -28 -29 -30 -31
leaf_value=0.063673977830593628 0.069495180134042114 0.1332023718415962 0.11585613705196834 0.017686885026621513 0.086729485114106844 0.0014300355676236727 0.10062569408921418 0.028806286214617879 0.065113020393423024 0.10847706404002573 0.14709450787552933 0.063568147791703555 0.068635162103006783 0.036083734440465039 0.039566608917185116 0.091505902501632985 0.12668130862546526 0.1368286494962134 0.057010440090367258 -0.0090925558468882232 0.005235881532150515 0.10827484738961038 -0.0028649027339749736 0.13393744947586997 0.010513328166949505 0.049277156261655075 0.053976378616515289 -0.019619491203211294 0.0043244358756203303 0.13557729018512685
leaf_weight=52.153366297483444 1923.7621908783913 201.78997124731541 1835.048688814044 2036.5663152933121 1231.12404756248 450.53159309923649 1065.9905112683773 1926.2985840588808 88.549871817231178 509.63179755210876 4606.8021949827671 1635.2909432798624 515.07176533341408 3699.5679216384888 158.38480199873447 1504.9808325618505 1216.5930598825216 1302.8124238997698 512.33372095227242 3372.2485954910517 2033.1647703945637 477.26172277331352 1139.2613653987646 781.86999900639057 1301.3666902184486 289.51635448634624 204.54718174040318 4338.1006283313036 126.21615442633629 84.749221444129944
leaf_count=154 5904 388 4070 8309 3400 1983 2662 7460 289 1194 7531 5254 1629 13881 600 4006 2492 2386 1715 15567 8885 1129 5096 1504 5540 1021 667 20865 547 169
internal_value=0.0565899 0.0256752 0.119002 0.00774462 0.0728629 -0.00390126 0.093287 0.0504078 -0.00505525 0.102825 0.137966 0.0463068 0.0327724 0.0295521 -0.00883083 0.0791564 0.114513 0.124564 0.0347317 -0.00247137 -0.00370313 0.0886026 -0.0147997 0.123891 0.0189737 0.0165943 0.082063 -0.0176391 0.0356295 0.108186
internal_weight=40621.6 27165.6 13456 19685.4 7480.15 13434.2 5711.33 4275.71 13297.3 3204.43 7744.66 4073.92 6251.21 5736.13 11491.7 3428.74 2282.58 3137.86 2438.63 5563.8 5405.41 1912.93 5927.89 1291.5 1805.65 1717.1 1435.67 4788.63 415.733 136.903
internal_count=136297 107246 29051 84535 22711 60716 15064 14817 60393 7894 13987 14429 23819 22190 52996 9910 5154 6456 9175 25052 24452 5196 27944 2698 7397 7108 4067 22848 1568 323
is_linear=0
shrinkage=0.05


Tree=3
num_leaves=31
num_cat=0
split_feature=0 2 0 0 1 1 0 0 2 0 1 2 1 2 0 1 0 1 0 0 0 1 1 2 3 0 0 1 0 3
split_gain=26337.5 7873.38 2456.1 1803.27 1637.67 632.305 603.186 518.356 434.393 374.971 362.34 257.843 209.743 159.663 148.55 135.139 120.076 115.644 113.592 103.554 98.6526 77.1508 76.22 73.9421 81.3967 73.902 68.3295 69.7566 66.5349 64.3753
threshold=0.53087835000000017 0.47727272727272729 0.58454870000000014 0.47080983500000001 12.511197675964949 11.659545103593862 0.29281872500000006 0.34703682000000008 0.38750000000000007 0.63474210000000009 9.3430458171627269 0.68333333333333346 9.2793044445860371 0.17424242424242423 0.54930957500000011 13.217815192005768 0.48983731500000005 17.452254373843207 0.50329804500000008 0.33714982500000007 0.42574726000000007 15.261988856069458 6.1390304769247175 0.58571428571428574 0.1578947368358726 0.44663212000000002 0.34703682000000008 9.7398739450127074 0.34394753000000006 0.22792207791364733
decision_type=2 2 2 2 2 2 2 2 2 2 2 2 2 2 2 2 2 2 2 2 2 2 2 2 2 2 2 2 2 2
left_child=1 3 5 6 7 14 -1 -3 13 15 18 29 16 25 -2 -4 -5 -7 22 -15 -21 -14 -9 24 -12 28 -10 -28 -8 -6
right_child=2 4 9 12 11 17 8 10 26 -11 23 -13 21 19 -16 -17 -18 -19 -20 20 -22 -23 -24 -25 -26 -27 27 -29 -30 -31
leaf_value=0.098584119114042343 0.058823746422152337 0.11502002471192048 0.10468296917991277 0.015437322620445344 0.087152865468594076 0.096884138295832992 0.0013575442256245317 0.013378700150773987 0.060054360901657368 0.13308001901172856 0.056551274733348783 0.11553738913707451 0.046423477591656187 0.033051900070727787 0.078523234665863167 0.12422458347994635 0.0312408895258212 0.12277581752256868 0.057848134322371673 -0.01005925230842987 0.0035348896344688367 0.093463475401187254 0.034199688140335596 0.07040132612648338 0.010985153106983793 -0.0027256560629834252 0.010005784522313453 0.033534774587643666 -0.01883340350995856 0.046281128213820709
leaf_weight=142.55073884129524 1596.9192544817924 281.88650871813297 2350.4848202317953 1921.3449323624372 1430.9443856179714 1336.9602714926004 450.85147438943386 610.69205595552921 91.137888163328171 4830.9856225550175 780.75793500244617 1173.4632524400949 794.9516681432724 199.13587491214275 2388.0887840986252 1418.691201120615 3210.1019504070282 636.61412973701954 384.29904560744762 2838.6976497620344 2518.7377972900867 97.900498613715172 1568.4330467879772 1050.6743591874838 112.07721930742264 1137.6328911632299 1316.5816411226988 414.07831926643848 4294.3487020283937 103.2960559874773
leaf_count=323 4946 563 5047 7820 3608 3064 1983 2439 289 7531 2437 2289 2684 759 6433 2485 11987 1159 1220 13220 11073 261 5808 3047 420 5096 5574 1534 20865 333
internal_value=0.0525847 0.0232887 0.106764 0.00649326 0.0668159 0.0820914 -0.0037191 0.0492432 -0.00481881 0.123858 0.0451291 0.0978949 0.0292153 -0.00843015 0.070629 0.112038 0.0253236 0.105236 0.0327847 -0.00235215 -0.00366812 0.0515814 0.0283647 0.061411 0.0508314 -0.0141711 0.0178575 0.0156353 -0.016915 0.0844011
internal_weight=41483.3 26924.6 14558.7 19428.1 7496.52 5958.58 13403.8 4788.82 13261.2 8600.16 4506.93 2707.7 6024.3 11439.4 3985.01 3769.18 5131.45 1973.57 2563.42 5556.57 5357.44 892.852 2179.13 1943.51 892.835 5882.83 1821.8 1730.66 4745.2 1534.24
internal_count=136297 105632 30665 83468 22164 15602 60716 15934 60393 15063 15371 6230 22752 52996 11379 7532 19807 4223 9467 25052 24293 2945 8247 5904 2857 27944 7397 7108 22848 3941
is_linear=0
shrinkage=0.05


Tree=4
num_leaves=31
num_cat=0
split_feature=0 2 0 0 1 1 0 0 2 0 2 1 1 0 0 1 1 0 1 0 1 0 1 0 3 1 0 3 0 0
split_gain=22483.8 6850.06 2089.38 1603.45 1398.19 549.273 527.654 431.62 396.293 357.55 282.543 213.375 181.348 123.736 127.19 116.8 115.258 109.867 96.7505 95.3519 91.295 84.7365 80.5388 68.3823 68.2122 65.5405 65.1756 58.2533 56.6103 55.0931
threshold=0.53087835000000017 0.47727272727272729 0.58191935000000006 0.47080983500000001 11.577931908569553 10.690874665199383 0.29281872500000006 0.32144333000000008 0.31666666666666671 0.62078375000000008 0.63068181818181823 9.3430458171627269 11.025940538008788 0.42728197000000007 0.33714982500000007 17.452254373843207 13.217815192005768 0.48983731500000005 9.8741527515731082 0.54930957500000011 6.1390304769247175 0.34394753000000006 17.819441796337902 0.65830273500000003 0.23076923075591718 14.895710417466359 0.50329804500000008 0.11764705881833912 0.36406986500000005 0.36752751500000008
decision_type=2 2 2 2 2 2 2 2 2 2 2 2 2 2 2 2 2 2 2 2 2 2 2 2 2 2 2 2 2 2
left_child=1 3 5 6 7 19 -1 -3 13 16 24 20 17 14 -8 -7 -4 -5 21 -2 -9 -10 28 -11 25 -6 -22 -20 -12 -13
right_child=2 4 9 12 10 15 8 11 18 23 22 29 -14 -15 -16 -17 -18 -19 27 -21 26 -23 -24 -25 -26 -27 -28 -29 -30 -31
leaf_value=0.090577295583250478 0.053136666163916706 0.12223516815543226 0.092647944565686702 0.015652188534617233 0.064124978440665115 0.087026263332164372 0.010365495387006526 0.016244773928703785 0.043453230840217044 0.11352239174529061 0.12808400429343256 0.094986940738861048 0.056079410763552898 -0.0028747411613785708 -0.016709244774289436 0.11222512289507612 0.11227865324310951 0.030160730208935751 0.036988584607445245 0.069632762838715639 0.033084358879453955 0.0038169943974063932 0.11532701734723619 0.12461101852997714 0.017494242655302472 0.086313263018117176 0.058110295847547094 0.0040176002534767349 0.089411776843804414 0.052795732227295403
leaf_weight=147.26390524208546 1509.6353782266378 165.33910584449768 2070.1087902188301 2070.7921095490456 930.52440781891346 1653.079557493329 472.13122509419918 722.21159279346466 141.49325901269913 2239.4714154750109 102.54275703430176 81.939446359872818 504.99123083055019 3765.8242759257555 5339.423355191946 637.07519018650055 1170.5012113600969 3527.7968695163727 447.12557816505432 2087.1007742136717 1638.1598069816828 2868.5666288286448 537.80922228097916 3666.9943108856678 59.630076974630356 518.13155893981457 309.28011061251163 191.27628028392792 1226.6337179541588 1388.566252335906
leaf_count=323 4609 259 4435 8309 2582 3771 1972 2794 482 3766 155 182 1536 17093 25932 1120 2021 12907 1614 5564 5928 12481 912 5379 219 1210 940 819 2716 4267
internal_value=0.0490739 0.0219167 0.0981309 0.00614718 0.0619045 0.074896 -0.00354489 0.0430161 -0.0045929 0.113084 0.0859985 0.0398525 0.0273828 -0.00993483 -0.0145097 0.0940361 0.0997385 0.0247943 0.00942991 0.062709 0.0314281 0.00568017 0.099001 0.120407 0.0699036 0.0720609 0.0370588 0.0271099 0.0923952 0.0551467
internal_weight=42191.4 27157.5 15034 19476.7 7680.77 5886.89 13373.1 4305.5 13225.8 9147.08 3375.27 4140.16 6103.58 9577.38 5811.55 2290.15 3240.61 5598.59 3648.46 3596.74 2669.65 3010.06 1866.99 5906.47 1508.29 1448.66 1947.44 638.402 1329.18 1470.51
internal_count=136297 105632 30665 83468 22164 15064 60716 14370 60393 15601 7794 14111 22752 44997 27904 4891 6456 21216 15396 10173 9662 12963 3783 9145 4011 3792 6868 2433 2871 4449
is_linear=0
shrinkage=0.05


Tree=5
num_leaves=31
num_cat=0
split_feature=0 2 0 1 0 1 0 0 0 2 1 1 2 0 0 0 1 2 0 0 1 1 2 3 2 0 1 2 3 2
split_gain=19472.7 5513.84 2560.25 1105.03 1044.93 724.305 477.831 421.261 348.813 329.883 254.795 190.634 187.797 165.18 116.497 117.901 113.437 107.192 90.6453 79.5391 76.7161 72.8517 66.6844 64.6715 63.8241 62.0971 60.3999 58.4267 58.3355 57.4335
threshold=0.51772129500000019 0.47727272727272729 0.57957605000000012 12.511197675964949 0.46174481500000003 11.577931908569553 0.29281872500000006 0.35836883500000005 0.62078375000000008 0.38750000000000007 9.3430458171627269 6.8971402301728659 0.68333333333333346 0.54769486500000009 0.33311529500000009 0.42574726000000007 13.217815192005768 0.58571428571428574 0.48264976000000009 0.32144333000000008 13.615424994784592 6.1390304769247175 0.38750000000000007 0.12499999999348956 0.17424242424242423 0.65184185000000017 7.4963367861411809 0.5634920634920636 0.22792207791364733 0.58571428571428574
decision_type=2 2 2 2 2 2 2 2 2 2 2 2 2 2 2 2 2 2 2 2 2 2 2 2 2 2 2 2 2 2
left_child=1 4 5 7 6 13 -1 19 16 14 21 18 28 22 -8 24 -4 -7 -6 -3 -13 -9 -2 26 -16 -10 -11 -21 -5 -12
right_child=2 3 8 12 11 17 9 10 25 23 29 20 -14 -15 15 -17 -18 -19 -20 27 -22 -23 -24 -25 -26 -27 -28 -29 -30 -31
leaf_value=0.083779331940859583 0.040391976837826485 0.1144162781775608 0.085150891802213052 0.073025786040647953 0.0064356911400918751 0.07567252702880746 0.016300203530052706 0.011496943048643123 0.10414715012649403 0.0098349699275889803 0.040942578059731422 0.030907119753230197 0.097973495932489468 0.064463375253514157 -0.019097045895890109 -0.0032199688341051089 0.10370487527056881 0.096814884092847997 0.021040694952408331 0.041385961069763666 0.066221168254429891 0.031139827795033423 0.056337480396894783 -0.010815610364440405 -0.0088835156452622081 0.11499779826529183 0.030423534385667802 0.09475902247066742 0.031417124192138525 0.058845241776201131
leaf_weight=151.14544677734375 1732.1831947118044 186.16792672872543 2289.9225944280624 1327.9219718724489 1822.4797513633966 1052.0655135512352 437.17892195284367 645.3539157807827 1940.6040532290936 818.68518579006195 820.68576353788376 1656.8819180130959 1092.0288356095552 2331.3960030823946 3302.3975691199303 3861.6193033009768 1286.6789174228907 1393.6728648841381 2547.2827551662922 98.04450811445713 169.52667763829231 1757.5527823418379 1055.0266228765249 211.30647020041943 2849.3085808008909 4113.5337262749672 630.61790971457958 107.49036954343319 89.943134903907776 986.49406288564205
leaf_count=323 5647 282 4819 3188 7687 2456 1751 2531 3228 3406 2551 5988 2009 6085 16413 17568 2175 2629 9599 306 478 6235 3090 938 13379 5917 2338 242 290 2749
internal_value=0.0459635 0.0182957 0.0871071 0.0557017 0.00388386 0.0653374 -0.00457267 0.0411459 0.104206 -0.00567529 0.0365315 0.0206194 0.0823892 0.0546425 -0.00896474 -0.0100678 0.0918257 0.0877202 0.0149494 0.0907422 0.034185 0.0258643 0.0464277 0.0150258 -0.0143664 0.11152 0.0187934 0.0692989 0.0703863 0.0507152
internal_weight=42765.2 25570.1 17195.1 7111.68 18458.4 7564.34 12262.3 4601.79 9630.74 12111.1 4210.09 6196.17 2509.89 5118.61 10450.5 10013.3 3576.6 2445.74 4369.76 391.703 1826.41 2402.91 2787.21 1660.61 6151.71 6054.14 1449.3 205.535 1417.87 1807.18
internal_count=136297 100251 36046 20383 79868 19907 56116 14896 16139 55793 14066 23752 5487 14822 49111 47360 6994 5085 17286 830 6466 8766 8737 6682 29792 9145 5744 548 3478 5300
is_linear=0
shrinkage=0.05


Tree=6
num_leaves=31
num_cat=0
split_feature=0 2 0 0 1 0 1 2 0 2 1 0 1 0 0 0 0 0 1 1 0 0 1 3 2 1 2 1 0 1
split_gain=17054.9 5307.65 1472.42 1428.55 1073.26 411.215 410.432 331.687 331.09 232.83 176.895 175.094 162.115 135.327 103.195 108.187 102.401 88.1206 80.9491 76.9528 73.0741 63.2265 62.7301 57.5929 57.0053 55.5859 54.3829 51.1462 49.5466 48.5017
threshold=0.5350123750000001 0.47727272727272729 0.60193020000000008 0.47080983500000001 11.577931908569553 0.29281872500000006 13.087339532073008 0.31666666666666671 0.35836883500000005 0.63068181818181823 9.8039723525418392 0.57261085000000012 9.3430458171627269 0.65184185000000017 0.42574726000000007 0.34394753000000006 0.50019395000000011 0.49545556000000007 9.8741527515731082 17.174209813364094 0.34394753000000006 0.32144333000000008 14.895710417466359 0.23529411763667823 0.63068181818181823 16.392368977271964 0.58571428571428574 1.0526340541753594 0.39623659000000006 6.1390304769247175
decision_type=2 2 2 2 2 2 2 2 2 2 2 2 2 2 2 2 2 2 2 2 2 2 2 2 2 2 2 2 2 2
left_child=1 3 6 5 8 27 11 14 21 23 16 24 17 22 15 -7 -5 29 20 28 -9 -3 -4 25 -2 -6 -8 -1 -11 -10
right_child=2 4 13 10 9 7 26 18 12 19 -12 -13 -14 -15 -16 -17 -18 -19 -20 -21 -22 -23 -24 -25 -26 -27 -28 -29 -30 -31
leaf_value=0.038804035697341428 0.054093993037212629 0.10520299437225211 0.089453060273715912 0.015768989829954054 0.056826515934986693 0.0057888167034989288 0.07873546262716731 0.039801071747929295 0.0089675737474079215 0.10111691348647558 0.046500248728938147 0.07479079821848747 0.046834939006061969 0.10747108437664997 -0.0028709243141351319 -0.015983300875519621 0.029148684693626539 0.043242563597288036 0.024581272160516268 0.099121979931115031 0.0033885945569939084 0.063705528247853013 0.1038273802176682 0.010465317914974265 0.07828179856183444 0.079443582927353082 0.095092524909904233 0.099103780541566433 0.074446900077498643 0.026143039588119085
leaf_weight=54.21373376250267 3138.9935122877359 173.03842568397522 2343.4301786422729 3033.6101114749908 1220.505800396204 644.92846545577049 831.77258269488811 144.70877820253372 566.81076097488403 205.56676521897316 851.31632515788078 1940.6970561444759 1509.3506290018559 4179.6590282917023 3891.5996814221144 4949.2905188053846 2705.3722697496414 596.55888943374157 649.84843030571938 684.07346029579639 2879.8844715058804 195.49005883932114 1122.5866639316082 56.468606546521187 264.08510555326939 349.44466009736061 1306.0404536426067 100.08945532143116 1139.2186709493399 1495.6178043782711
leaf_count=145 8464 259 4215 11792 3187 2764 1688 482 2244 347 2560 4236 4433 5917 17730 24503 9467 1847 2433 1125 12481 515 1703 205 584 745 2244 178 2450 5354
internal_value=0.0431788 0.0201336 0.0859825 0.00619204 0.054008 -0.00323178 0.070213 -0.00418325 0.0377635 0.0741704 0.0252312 0.0628058 0.0337473 0.101413 -0.00912363 -0.0134733 0.0220762 0.0263182 0.00857067 0.0854689 0.00513071 0.0831902 0.0941087 0.0600763 0.055971 0.0618607 0.0887284 0.0779177 0.0785237 0.0214228
internal_weight=43224.3 28097 15127.3 19904.9 8192.14 13314.6 7481.59 13160.3 4536.87 3655.28 6590.3 5343.78 4168.34 7645.68 9485.82 5594.22 5738.98 2658.99 3674.44 2028.86 3024.59 368.528 3466.02 1626.42 3403.08 1569.95 2137.81 154.303 1344.79 2062.43
internal_count=136297 107246 29051 84535 22711 60716 17216 60393 14652 8059 23819 13284 13878 11835 44997 27267 21259 9445 15396 3922 12963 774 5918 4137 9048 3932 3932 323 2797 7598
is_linear=0
shrinkage=0.05


Tree=7
num_leaves=31
num_cat=0
split_feature=0 1 0 0 2 2 0 2 0 1 0 0 0 2 0 0 0 3 2 0 1 0 2 3 3 2 1 2 1 3
split_gain=15090.5 4801.2 1211.16 1112.34 818.38 744.498 456.348 319.376 299.611 219.845 172.946 147.452 128.082 128.004 119.696 113.77 110.58 105.87 103.873 98.4318 75.8389 73.1907 64.68 61.8729 60.5218 58.233 57.4917 53.3801 46.7191 45.0962
threshold=0.54124807000000008 9.8039723525418392 0.47492466500000002 0.60193020000000008 0.38750000000000007 0.5634920634920636 0.32794295000000001 0.58571428571428574 0.29281872500000006 14.895710417466359 0.48627706000000004 0.44513759000000003 0.65184185000000017 0.38750000000000007 0.56433806000000009 0.36752751500000008 0.33311529500000009 0.18181818180578507 0.58571428571428574 0.50426120000000008 13.348166479437465 0.37746081000000004 0.17424242424242423 0.18749999999121095 0.043478260868147406 0.38750000000000007 14.895710417466359 0.72077922077922085 11.577931908569553 0.23076923075591718
decision_type=2 2 2 2 2 2 2 2 2 2 2 2 2 2 2 2 2 2 2 2 2 2 2 2 2 2 2 2 2 2
left_child=1 2 4 7 8 10 -6 14 -1 15 17 16 26 19 28 -7 -10 20 23 -4 25 -20 -18 24 -8 -3 -5 29 -2 -11
right_child=3 5 13 12 6 9 18 -9 11 27 -12 -13 -14 -15 -16 -17 22 -19 21 -21 -22 -23 -24 -25 -26 -27 -28 -29 -30 -31
leaf_value=0.067700373302692365 0.048235200246758897 0.0083308128735514464 0.014502545065876411 0.083804389423263681 0.093241758607945979 0.098774083862865833 -0.0083754229210964096 0.085033207956366819 0.014105974748043003 0.079049844073097966 0.051412971001587204 0.0025546444234418415 0.10115580131810085 0.036171063454687589 0.067681307976659652 0.057138151754986148 -0.016017560338768885 -0.017495391979458239 0.068758944472113268 0.028721435975381866 0.049203152911881591 0.026206054605313708 -0.0069292857149918612 -0.046278503963764497 0.015622368098511223 0.031691692515372544 0.097482273341493994 0.093796309996606098 0.066761332811674373 0.036777457250241209
leaf_weight=135.58565780520439 1711.392988294363 385.9124851077795 2546.1851004362106 2375.4225825369358 205.50922490656376 177.61156117916107 294.90197819471359 1883.4892680943012 433.63656125962734 796.06277656555176 1275.3923489153385 2938.6024584025145 4217.461012467742 2057.1737210154533 2761.3708420097828 2152.0763171762228 4247.3864245116711 122.79890981316566 119.61278265714645 2331.8338785469532 412.53782793879509 651.15098270773888 3631.5615351051092 44.741582751274109 2408.284005984664 864.05119995772839 1135.5029115974903 770.77091486752033 424.7646941691637 68.521487146615982
leaf_count=290 4642 1597 9748 4215 349 292 1249 3450 1722 1570 3482 12845 5917 6715 6043 5360 21260 494 322 7866 1216 2277 17048 208 9298 2742 1703 1261 929 187
internal_value=0.040668 0.0198825 0.00841187 0.0823151 0.000472467 0.0558764 0.0208187 0.0675355 -0.00618206 0.0701766 0.0373509 -0.0070724 0.0952829 0.0257109 0.0608063 0.0603124 -0.0104757 0.0273052 0.0165889 0.0212996 0.0306143 0.0328097 -0.0118286 0.0120391 0.0130043 0.0244793 0.0882281 0.0842289 0.051919 0.0756996
internal_weight=43581.3 29071.9 22046.2 14509.4 15111 7025.74 3724.2 6781.02 11386.8 3965.04 3060.69 11251.2 7728.39 6935.19 4897.53 2329.69 8312.58 1785.3 3518.69 4878.02 1662.5 770.764 7878.95 2747.93 2703.19 1249.96 3510.93 1635.36 2136.16 864.584
internal_count=136297 109398 91197 26899 66868 18201 13703 15064 53165 8670 9531 52875 11835 24329 11614 5652 40030 6049 13354 17614 5555 2599 38308 10755 10547 4339 5918 3018 5571 1757
is_linear=0
shrinkage=0.05


Tree=8
num_leaves=31
num_cat=0
split_feature=0 2 0 0 1 1 0 2 0 2 0 1 1 0 2 0 0 1 1 0 3 1 3 1 2 3 0 3 3 3
split_gain=13440.7 4271.91 1301.75 1040.76 868.62 338.721 326.368 264.568 261.915 193.009 141.803 132.521 131.241 125.212 96.8622 91.1739 90.5256 82.9393 75.2917 74.7141 56.3708 56.0598 55.2227 52.4189 51.1201 50.1813 45.4295 45.2009 44.7093 46.1551
threshold=0.54124807000000008 0.47727272727272729 0.47659082500000011 0.60911470000000012 11.577931908569553 13.087339532073008 0.32144333000000008 0.31666666666666671 0.32144333000000008 0.63068181818181823 0.42574726000000007 9.1052391816457234 7.7304911275841519 0.57261085000000012 0.15476190476190474 0.51772129500000019 0.65184185000000017 13.087339532073008 17.819441796337902 0.49545556000000007 0.12499999999544266 7.3996373826246726 0.19399641576478699 14.895710417466359 0.63068181818181823 0.18634259258330385 0.48354189000000009 0.046511627906165455 0.03519091847213681 0.089418976544376708
decision_type=2 2 2 2 2 2 2 2 2 2 2 2 2 2 2 2 2 2 2 2 2 2 2 2 2 2 2 2 2 2
left_child=1 2 6 5 8 13 14 10 -3 22 -8 19 15 -2 -1 -4 -5 20 -11 24 21 -9 -6 25 27 -14 -24 -10 -12 -30
right_child=3 4 12 16 9 -7 7 17 11 18 28 -13 23 -15 -16 -17 -18 -19 -20 -21 -22 -23 26 -25 -26 -27 -28 -29 29 -31
leaf_value=0.013706580665899396 0.050413657356107339 0.093610733063505855 0.016221890623385547 0.084352968497181532 0.056259310557835923 0.080649136105856042 -0.013514413831750767 0.002787475189519887 -0.0063704420513455602 0.069313609382767205 -0.0059360453855593354 0.041723351131240961 0.03574762247049923 0.065970582089564425 0.063097462921170092 0.031426772608347003 0.095778913307653687 0.039596927943058156 0.089611334949848728 0.039457912462953132 -0.013045527360526308 0.016176416829864922 0.0034498529860934306 0.06577879005972298 0.035414737622723472 -0.01618430540471269 0.051343352956095649 0.019007569594860704 0.0074124674371523081 -0.014327078268525776
leaf_weight=173.75932408869267 2863.0808642953634 176.0051481872797 3427.694868221879 2936.7215833067894 1561.6793959885836 2249.5073934942484 5323.2642217129469 2106.6542307138443 199.05249378085136 1537.0462948828936 2393.2285526990891 1870.8542291671038 1491.960491552949 2359.1863239258528 231.54336360096931 1384.0200444459915 4231.0583609938622 190.08360120654106 650.10618521273136 637.52067312598228 360.75448448956013 1243.1580725461245 95.623996034264565 142.96378688514233 424.79461614787579 48.01411871612072 102.6818805038929 1480.1993440687656 1676.2125691175461 285.77595221996307
leaf_count=631 7264 259 12705 4842 3724 3941 26483 9075 801 3091 11013 5313 4689 4935 613 4446 5917 642 1026 1895 1620 4863 324 341 1419 178 270 5334 7322 1321
internal_value=0.038383 0.0187883 0.00630093 0.0774862 0.0480629 0.0644286 -0.00228987 -0.00360951 0.0337481 0.0654287 -0.00804016 0.0314638 0.0247988 0.0574416 0.0419229 0.0205954 0.0910976 0.00738405 0.0753469 0.0244627 0.00573386 0.00775628 0.0531032 0.0368171 0.0199192 0.0341285 0.0282489 0.0159994 -0.00134914 0.00424597
internal_weight=43854.2 29214.7 20479.1 14639.6 8735.56 7471.77 13984.4 13579.1 4788.43 3947.14 9678.48 4612.42 6494.65 5222.27 405.303 4811.71 7167.78 3900.65 2187.15 2741.57 3710.57 3349.81 1759.99 1682.94 2104.05 1539.97 198.306 1679.25 4355.22 1961.99
internal_count=136297 109398 85942 26899 23456 16140 63583 62339 15021 8435 46139 14762 22359 12199 1244 17151 10759 16200 4117 9449 15558 13938 4318 5208 7554 4867 594 6135 19656 8643
is_linear=0
shrinkage=0.05


Tree=9
num_leaves=31
num_cat=0
split_feature=0 1 0 0 2 2 0 2 0 1 0 0 0 3 2 0 0 0 1 0 2 2 1 2 3 1 2 1 1 0
split_gain=12052.8 3798.75 986.765 963.272 664.473 597.971 371.58 277.245 249.085 187.893 145.178 127.408 121.746 109.765 102.431 101.115 99.9317 91.8488 85.1129 79.5467 69.7546 64.1125 58.2519 56.44 54.6457 49.3167 46.2746 44.7668 44.3643 42.5513
threshold=0.54124807000000008 9.8039723525418392 0.60193020000000008 0.47492466500000002 0.38750000000000007 0.5634920634920636 0.34083789500000006 0.58571428571428574 0.29281872500000006 14.895710417466359 0.50964939500000017 0.44513759000000003 0.64530660000000006 0.18181818180578507 0.38750000000000007 0.36406986500000005 0.56433806000000009 0.33311529500000009 13.348166479437465 0.50426120000000008 0.58571428571428574 0.38750000000000007 15.469276544877568 0.17424242424242423 0.18749999999121095 6.6040387519717578 0.72077922077922085 1.0000000180025095e-35 15.084573604512395 0.31146021000000007
decision_type=2 2 2 2 2 2 2 2 2 2 2 2 2 2 2 2 2 2 2 2 2 2 2 2 2 2 2 2 2 2
left_child=1 3 7 4 8 10 29 16 -1 15 13 17 22 18 19 -7 -2 -10 21 -5 24 -3 -4 27 25 -8 -11 -19 -9 -6
right_child=2 5 12 14 6 9 20 28 11 26 -12 -13 -14 -15 -16 -17 -18 23 -20 -21 -22 -23 -24 -25 -26 -27 -28 -29 -30 -31
leaf_value=0.061097982761373487 0.045321745879867675 0.0092090139017961103 0.073658056691458626 0.012751737349323077 0.092029136744399054 0.090651210651781944 0.0037543057532680637 0.068183880276803235 0.012565814187057959 0.067093202305696001 0.05222146384188936 0.0024336660056514022 0.090676037648906693 -0.012109710271351701 0.031988853785846164 0.050242658415647526 0.059545121488139965 -0.010813675210750429 0.046360955484784319 0.025424961490161324 0.027412416386460893 0.030645616225586578 0.088536830443237985 -0.0063597700867301411 -0.045082611258072766 0.017387929114444239 0.083795566141732947 -0.021448359912608433 0.083392197851255304 0.053128719909911352
leaf_weight=137.96961036324501 2192.9033264815807 503.77005523443222 2273.4102346152067 2580.7402422875166 149.55732336640358 166.4047909528017 1206.4645274281502 973.15955506265163 438.9000633507967 882.90284505486488 744.36446227133274 2941.9558650404215 4578.9456867575645 167.43535344302654 2107.9764085114002 2222.5214811265469 2826.822561532259 2579.5132270157337 578.53661532700062 2380.1406804323196 767.31542983651161 1133.8170972913504 925.6907542347908 3608.0048454552889 43.753288969397545 1473.3188725411892 781.98494610190392 1605.4732952415943 945.34505295753479 132.64839480817318
leaf_count=290 5571 1969 4009 9748 222 263 4916 1928 1722 1757 1882 12845 6455 642 6715 5389 6043 12971 1590 7866 2555 3448 1371 17048 207 5473 1261 8289 1522 330
internal_value=0.0362933 0.0177693 0.073219 0.00752493 0.000387779 0.0493704 0.0185579 0.0595105 -0.00567286 0.0620438 0.0329456 -0.00649731 0.0854473 0.026926 0.0227555 0.0530574 0.0533315 -0.00968911 0.0298753 0.0188321 0.0140965 0.0240511 0.0779634 -0.0109425 0.010345 0.0112499 0.0749382 -0.0148934 0.0756778 0.0737443
internal_weight=44051.7 29335.5 14716.3 22153.7 15084.9 7181.74 3773.06 6938.23 11311.8 4053.81 3127.92 11173.8 7778.05 2383.56 7068.86 2388.93 5019.73 8231.89 2216.12 4960.88 3490.85 1637.59 3199.1 7792.99 2723.54 2679.78 1664.89 4184.99 1918.5 282.206
internal_count=136297 109398 26899 91197 66868 18201 13703 15064 53165 8670 9531 52875 11835 7649 24329 5652 11614 40030 7007 17614 13151 5417 5380 38308 10596 10389 3018 21260 3450 552
is_linear=0
shrinkage=0.05


Tree=10
num_leaves=31
num_cat=0
split_feature=0 2 0 0 1 1 0 0 2 0 1 2 0 1 2 0 2 0 2 3 3 1 0 3 0 1 1 1 3 3
split_gain=10870.2 3405.1 1051.26 947.999 715.933 310.205 288.911 238.135 197.762 159.392 149.702 142.215 120.25 115.319 82.1112 72.7175 72.1196 61.9677 53.4347 53.4196 51.9105 50.0532 49.838 49.2877 55.4619 47.3164 43.2323 42.5904 49.0677 42.5126
threshold=0.54124807000000008 0.47727272727272729 0.46174481500000003 0.61309793000000012 12.511197675964949 13.475135559406041 0.32144333000000008 0.32144333000000008 0.38750000000000007 0.51772129500000019 9.3430458171627269 0.68333333333333346 0.57719535000000011 6.8971402301728659 0.15476190476190474 0.65184185000000017 0.17424242424242423 0.50329804500000008 0.63068181818181823 0.11999999999640001 0.069767441859248214 1.0000000180025095e-35 0.48264976000000009 0.15301003343724481 0.43638047500000005 15.469276544877568 5.0194419138440756 19.403872952087287 0.22792207791364733 0.18634259258330385
decision_type=2 2 2 2 2 2 2 2 2 2 2 2 2 2 2 2 2 2 2 2 2 2 2 2 2 2 2 2 2 2
left_child=1 2 6 5 7 12 14 -3 16 13 17 27 -2 22 -1 -5 21 18 -9 26 -11 -8 -4 -12 -25 29 -10 28 -6 -15
right_child=3 4 9 15 11 -7 8 10 19 20 23 -13 -14 25 -16 -17 -18 -19 -20 -21 -22 -23 -24 24 -26 -27 -28 -29 -30 -31
leaf_value=0.011409114674023736 0.045439083898083522 0.08625726774384547 0.0046833740350231577 0.076539431005818781 0.051255665188598934 0.073464582094997885 -0.0081418262853938488 0.014951893404407141 -0.0035853760432299308 0.025248565705893424 0.042319859301815213 0.072840414936514747 0.060261746089547777 0.025094752629247975 0.056487272785665281 0.087125017634369764 -0.0035807628444614009 0.037206563960472082 0.033249476746953929 -0.01117719855042875 0.041869153770386906 -0.018295715814645688 0.015373009668443094 -0.0081901749125398125 0.034084596703474752 0.06196167728879385 0.018426705922800286 0.07168033334029382 0.0141007250661664 -0.024833695847268526
leaf_weight=175.93842743337154 3388.5234392136335 192.89612556993961 1850.4885600358248 2643.6442230939865 1563.0165420621634 2220.0718283951283 3139.167892858386 1913.5594724416733 275.64002627134323 1243.9467571526766 1975.0031865388155 1438.464645460248 2294.9789805859327 1797.1839855015278 237.23892816901207 4199.6087898463011 4899.8013892322779 561.43795539438725 504.11765873432159 241.49782675504684 754.87523181736469 1978.7146317064762 2654.4954105168581 104.56180404126644 300.70448592305183 85.492085665464401 1169.4103620350361 239.99151249229908 94.215511247515678 43.67052797973156
leaf_count=631 8262 282 7687 4304 3539 3808 15513 6823 1171 3938 5171 2505 4608 6085 613 5917 22650 1590 1619 1051 2136 10083 9599 351 831 204 4404 453 292 177
internal_value=0.0343726 0.0168185 0.00563396 0.0694116 0.0426755 0.0576154 -0.0037992 0.0316763 -0.00524979 0.0191931 0.0297118 0.0609838 0.0514244 0.0153602 0.0372922 0.0830357 -0.00791656 0.0222422 0.0187672 0.0105902 0.0315255 -0.0120676 0.0109821 0.0390606 0.0231774 0.025599 0.014228 0.0519942 0.0491434 0.0239103
internal_weight=44182.4 29435.5 20547.6 14746.8 8887.97 7903.57 12117.4 5552.28 11704.2 8430.15 5359.38 3335.69 5683.5 6431.33 413.177 6843.25 10017.7 2979.12 2417.68 1686.55 1998.82 5117.88 4504.98 2380.27 405.266 1926.35 1445.05 1897.22 1657.23 1840.85
internal_count=136297 109398 85942 26899 23456 16678 56116 16667 54872 29826 16385 6789 12870 23752 1244 10221 48246 10032 8442 6626 6074 25596 17286 6353 1182 6466 5575 4284 3831 6262
is_linear=0
shrinkage=0.05


Tree=11
num_leaves=31
num_cat=0
split_feature=0 1 0 0 2 2 0 1 0 0 0 0 1 1 0 2 3 0 0 0 2 1 3 3 2 0 3 0 2 1
split_gain=9851.3 3053.3 913.536 769.831 532.57 500.574 311.586 289.764 208.465 127.227 110.87 110.752 93.0085 85.1152 79.5087 76.5311 78.4409 76.3118 73.2708 68.3775 56.1503 49.1465 48.7332 45.2843 45.0513 41.5483 40.547 51.1287 40.3441 38.7389
threshold=0.54124807000000008 9.8039723525418392 0.61309793000000012 0.47492466500000002 0.38750000000000007 0.61250000000000016 0.34083789500000006 13.475135559406041 0.29281872500000006 0.48627706000000004 0.44513759000000003 0.57719535000000011 15.903447747119326 5.9715553345062435 0.36752751500000008 0.5634920634920636 0.18181818180578507 0.33714982500000007 0.65184185000000017 0.51528068000000016 0.58571428571428574 13.348166479437465 0.18749999999121095 0.043478260868147406 0.17424242424242423 0.37746081000000004 0.11999999999640001 0.43710178000000005 0.63068181818181823 19.939339877895865
decision_type=2 2 2 2 2 2 2 2 2 2 2 2 2 2 2 2 2 2 2 2 2 2 2 2 2 2 2 2 2 2
left_child=1 3 7 4 8 9 -6 11 -1 15 17 28 14 19 -7 16 21 -10 -4 -5 22 26 23 -8 -19 -22 -3 -28 -2 -9
right_child=2 5 18 13 6 12 20 29 10 -11 -12 -13 -14 -15 -16 -17 -18 24 -20 -21 25 -23 -24 -25 -26 -27 27 -29 -30 -31
leaf_value=0.05558355277022279 0.04115694389299851 0.023804159292410285 0.072916541657493963 0.011425237653602786 0.066881683759373547 0.088912242233636793 -0.0088291943366783313 0.065830871756144702 0.0092505101403267571 0.043688936325846327 0.0023760377196804048 0.056985838885560004 0.072347141093446574 0.026724423412479506 0.050218210543632916 0.03971424549467828 -0.017566078748841581 -0.013825567482970591 0.083570651198388954 0.025189559039029016 0.053739378958428889 0.038420815254275618 -0.043850522289048559 0.012104074473366686 -0.006117818264572499 0.019715237403128888 -0.020519988161183726 0.02121557237561969 0.060735600773293333 0.080792528987471038
leaf_weight=139.40439088642597 3129.3028713166714 991.36841507256031 2636.4016069471836 2934.2457041740417 283.39791359007359 145.1257466673851 289.24587865173817 1630.9412639439106 538.23480278253555 1881.3288662880659 2943.2983181923628 2305.2732985019684 1066.0257301032543 2945.1101246029139 1558.0705058276653 787.01234599947929 122.51469640433788 4064.2431769818068 4160.2712473124266 1302.9403410851955 103.39016795158386 432.7229121029377 42.887994632124901 2418.9423194229603 3553.2313423454762 678.92160750925541 131.57505355775356 165.91986575722694 287.2750590890646 588.84446762502193
leaf_count=290 7682 3262 4304 10799 552 212 1223 2902 2150 4743 12845 4608 1794 9430 3448 1955 494 20981 5917 4100 278 1216 207 9166 16899 2277 531 546 580 906
internal_value=0.0325969 0.0159285 0.065982 0.00672664 0.000301051 0.0440301 0.0164379 0.054466 -0.00517934 0.0337603 -0.00594253 0.0485172 0.0607647 0.0201957 0.0535152 0.0266609 0.0210901 -0.0089446 0.079438 0.0156578 0.012392 0.0238411 0.00903086 0.00986831 -0.0102302 0.0242119 0.018946 0.00275691 0.0428032 0.0697998
internal_weight=44257.5 29519.2 14738.3 22237.5 15055.2 7281.66 3816.79 7941.64 11238.4 4512.44 11099 5721.85 2769.22 7182.3 1703.2 2631.11 1844.1 8155.71 6796.67 4237.19 3533.39 1721.59 2751.08 2708.19 7617.47 782.312 1288.86 297.495 3416.58 2219.79
internal_count=136297 109398 26899 91197 66868 18201 13703 16678 53165 12747 52875 12870 5454 24329 3660 8004 6049 40030 10221 14899 13151 5555 10596 10389 37880 2555 4339 1077 8262 3808
is_linear=0
shrinkage=0.05


Tree=12
num_leaves=31
num_cat=0
split_feature=0 2 0 0 1 1 0 0 2 0 2 1 0 1 2 0 0 0 3 2 1 3 1 1 3 2 0 3 1 0
split_gain=8965.82 2758.77 886.135 845.094 597.748 282.641 240.264 211.205 163.53 127.823 125.373 118.139 114.74 88.6659 66.0762 60.8398 60.2299 60.046 47.2311 44.2561 43.9427 43.6879 42.4702 41.326 40.8996 40.7306 40.7258 39.907 39.8278 37.6138
threshold=0.54124807000000008 0.47727272727272729 0.61678742500000017 0.46174481500000003 12.511197675964949 13.087339532073008 0.29281872500000006 0.35836883500000005 0.38750000000000007 0.51772129500000019 0.68333333333333346 9.4730539813787242 0.57957605000000012 6.8971402301728659 0.17424242424242423 0.33714982500000007 0.65830273500000003 0.50853169000000009 0.11764705881833912 0.5634920634920636 1.0000000180025095e-35 0.06382978723302396 19.939339877895865 6.1390304769247175 0.17902930402381415 0.63068181818181823 0.48264976000000009 0.020408163264993704 15.469276544877568 0.31146021000000007
decision_type=2 2 2 2 2 2 2 2 2 2 2 2 2 2 2 2 2 2 2 2 2 2 2 2 2 2 2 2 2 2
left_child=1 3 5 6 7 12 -1 19 14 13 -6 17 25 26 20 -16 -4 23 -10 29 -8 -11 -7 -9 -13 -2 -5 -17 -15 -3
right_child=2 4 16 9 10 22 8 11 18 21 -12 24 -14 28 15 27 -18 -19 -20 -21 -22 -23 -24 -25 -26 -27 -28 -29 -30 -31
leaf_value=0.05701953803101574 0.038774786352677365 0.080677231275639305 0.071068274793299233 0.0041017230510312702 0.046554896241284061 0.062387558605777417 -0.0070714967051132326 0.0048997744813318251 0.013347224776683431 0.021542814240328566 0.06608831515548301 0.036347339945383007 0.054810654679723327 0.020968442056745182 0.023542726768241859 -0.025177313325665047 0.080892971271307679 0.034781677492377379 -0.0099245529444001394 0.075750692732908215 -0.016529530124310885 0.036317104529045685 0.077516595046652981 0.019636476698236423 0.012812733719761321 0.058531146594654429 0.01372740920147195 -0.002817379312997251 0.055484498783964178 0.026986370424773622
leaf_weight=161.73670507967472 3246.899993956089 45.494258046150208 2670.1167284548283 1859.8945419937372 1918.7224178910255 1877.0675834864378 3209.5857333689928 642.22447367012501 1470.0693838447332 1148.3595774620771 1436.4496521651745 2035.2934010773897 2249.6206695586443 1874.0795091837645 212.56614191830158 208.69572491943836 3751.9850055277348 501.89413471519947 255.99279788136482 252.14958170056343 1989.1973212212324 886.73737917840481 616.14145018160343 1835.0907257497311 203.02012071013451 283.67645417153835 2685.5731802135706 4552.7311595380306 87.477581381797791 115.27242240309715
leaf_count=323 7908 67 4304 7687 4284 3356 15933 2425 5575 3594 2505 5286 4435 6262 759 1048 5379 1383 1107 432 10240 2480 949 6129 614 568 9599 21131 204 331
internal_value=0.0309489 0.0150936 0.0628724 0.00501083 0.0382119 0.052055 -0.00351152 0.0282569 -0.0043343 0.0170435 0.0549177 0.0255326 0.0459854 0.013623 -0.00674878 -0.00262903 0.0768082 0.0190111 0.00989578 0.0626801 -0.0106904 0.0279803 0.0661264 0.0158161 0.0342127 0.0403622 0.00978881 -0.00379743 0.0225077 0.04218
internal_weight=44283.8 29588.3 14695.5 20602.7 8985.61 8273.41 12060.6 5630.44 11898.8 8542.12 3355.17 5217.52 5780.2 6507.02 10172.8 4973.99 6422.1 2979.21 1726.06 412.916 5198.78 2035.1 2493.21 2477.32 2238.31 3530.58 4545.47 4761.43 1961.56 160.767
internal_count=136297 109398 26899 85942 23456 17216 56116 16667 55793 29826 6789 15837 12911 23752 49111 22938 9683 9937 6682 830 26173 6074 4305 8554 5900 8476 17286 22179 6466 398
is_linear=0
shrinkage=0.05


Tree=13
num_leaves=31
num_cat=0
split_feature=0 2 0 0 2 1 1 1 0 0 0 0 1 3 1 2 0 2 0 1 0 1 0 0 3 0 1 0 3 0
split_gain=8188.07 2483.24 879.3 863.521 384.035 298.784 268.894 197.803 172.516 169.905 132.588 89.5847 79.1001 78.7162 94.2671 76.3765 73.9699 71.1363 61.2343 52.5137 51.4596 48.9687 47.3368 46.2596 45.7026 41.2799 39.3072 39.0821 37.3168 35.4923
threshold=0.54124807000000008 0.5634920634920636 0.46670217000000008 0.61678742500000017 0.38750000000000007 12.511197675964949 10.451114260423276 8.0299178265963178 0.29281872500000006 0.35836883500000005 0.31146021000000007 0.57261085000000012 17.819441796337902 0.1578947368358726 6.6040387519717578 0.58571428571428574 0.51528068000000016 0.17424242424242423 0.65184185000000017 10.690874665199383 0.33714982500000007 11.659545103593862 0.41458792500000002 0.50853169000000009 0.19999999998333332 0.39623659000000006 1.0000000180025095e-35 0.50223381500000019 0.021739130434428152 0.34703682000000008
decision_type=2 2 2 2 2 2 2 2 2 2 2 2 2 2 2 2 2 2 2 2 2 2 2 2 2 2 2 2 2 2
left_child=1 2 4 6 8 9 11 16 -1 -3 -6 -2 24 14 -12 -8 -4 26 -5 27 -19 23 -22 -9 25 -7 -10 -11 -28 -16
right_child=3 5 7 18 10 12 15 21 17 19 13 -13 -14 -15 29 -17 -18 20 -20 -21 22 -23 -24 -25 -26 -27 28 -29 -30 -31
leaf_value=0.049623105156293229 0.034696511662819833 0.072095178902204834 0.011102562797712354 0.067391922253936337 0.076410438345726028 0.073382038887560883 0.051905087607946099 0.018599582178767851 -0.00663533064838166 0.020097949130216522 0.0024248972424005229 0.048720696881857303 0.06902860256919538 -0.015471504956810498 0.051084649530187022 0.066265905774929718 0.022908813273551043 0.022147835152175811 0.077615784152952227 0.039031677857055455 -0.0083903025675757924 0.038861334865633264 0.0013876618314273949 0.034563939587268569 0.032020436226026579 0.050494955887593673 -0.03245120393319275 0.038324251116347595 -0.012770335362405376 0.018801668523358569
leaf_weight=141.40473641455173 2424.7628833353519 251.69678418338299 4843.9889412224293 2295.2772901803255 81.845001444220543 228.11331345140934 1774.1886486560106 1095.448155939579 3315.9787446409464 1360.3458031564951 1147.459335654974 2147.0111243128777 809.88079193234444 242.28088727593422 88.718105256557465 1936.2997055500746 1827.1129891723394 214.60186174511909 4046.5270148068666 880.21823124587536 2185.4031775295734 1013.2052815109491 2854.5386489182711 774.66905334591866 287.04214580357075 1445.1238512545824 278.31424550712109 375.24902349710464 1789.5080939233303 2110.2038238793612
leaf_count=292 6010 432 17851 3766 133 380 3531 3560 16464 4281 4558 4384 1349 977 222 3291 5617 759 5917 2136 10583 2526 12786 2134 677 2954 1504 984 9169 7070
internal_value=0.0294148 0.0143105 0.00729716 0.0600307 -0.000484192 0.0441727 0.0493989 0.0190658 -0.00524057 0.0328591 0.0134846 0.0412826 0.0558838 0.0120495 0.014042 0.0593992 0.0143361 -0.00596982 0.0739155 0.0290838 -0.00183119 0.0300088 -0.00285223 0.0252126 0.0504531 0.0536152 -0.0100091 0.0240386 -0.0154192 0.0201042
internal_weight=44266.4 29642.4 24004.7 14624.1 14450.3 5637.67 8282.26 9554.42 10779.7 2867.51 3670.51 4571.77 2770.16 3588.66 3346.38 3710.49 6671.1 10638.3 6341.8 2615.81 5254.54 2883.32 5039.94 1870.12 1960.28 1673.24 5383.8 1735.59 2067.82 2198.92
internal_count=136297 109398 96205 26899 64517 13193 17216 31688 51557 7833 12960 10394 5360 12827 11850 6822 23468 51265 9683 7401 24128 8220 23369 5694 4011 3334 27137 5265 10673 7292
is_linear=0
shrinkage=0.05


Tree=14
num_leaves=31
num_cat=0
split_feature=0 1 0 0 2 2 0 1 0 0 0 1 0 0 0 3 1 0 0 2 3 3 1 0 2 1 1 3 2 3
split_gain=7500.27 2372.71 683.363 661.083 424.198 398.808 241.911 214.963 148.766 116.902 107.031 91.49 73.5958 73.4672 66.8557 60.4198 72.9757 56.5458 50.4499 48.6188 48.7841 51.9405 46.8196 43.0347 41.3359 39.0607 38.7036 35.1002 34.836 34.2908
threshold=0.54930957500000011 9.8039723525418392 0.62078375000000008 0.48264976000000009 0.38750000000000007 0.61250000000000016 0.32794295000000001 13.475135559406041 0.29281872500000006 0.48627706000000004 0.44227664000000005 17.819441796337902 0.36752751500000008 0.58191935000000006 0.34394753000000006 0.18181818180578507 13.615424994784592 0.51772129500000019 0.65830273500000003 0.58571428571428574 0.043478260868147406 0.11999999999640001 5.9715553345062435 0.37746081000000004 0.38750000000000007 21.828737435705904 13.475135559406041 0.078689370483228369 0.17424242424242423 0.083333333328124967
decision_type=2 2 2 2 2 2 2 2 2 2 2 2 2 2 2 2 2 2 2 2 2 2 2 2 2 2 2 2 2 2
left_child=1 3 7 4 8 9 -6 13 -1 15 14 12 -7 -2 -10 16 24 22 -4 20 -8 -22 -5 -21 -3 -11 -14 -26 -16 -30
right_child=2 5 18 17 6 11 19 -9 10 25 -12 -13 26 -15 28 -17 -18 -19 -20 23 21 -23 -24 -25 27 -27 -28 -29 29 -31
leaf_value=0.047034828460247174 0.038483563590162834 0.0055811354849147447 0.066096018985819197 0.011118143086536237 0.067461383171118702 0.079279758933567077 -0.0099433203870039535 0.062395839039269069 0.0063851573286560813 0.03681352571419446 0.0019536439037565675 0.067901964680386354 0.037892092870685214 0.050360260936050033 -0.01293198047295268 -0.0023217888545394405 0.03938515480394382 0.024737867797086602 0.075550231924051123 0.048573234232558819 0.013612669769610756 -0.0061572761112324206 0.021877428412090047 0.01744130403820135 0.036289760464732528 0.078476646839956671 0.051656848057518093 0.018721227278184805 -0.0036130673134047858 -0.01735908734949717
leaf_weight=140.57393814623356 2963.4954468011856 408.67812497913837 2308.5011613219976 2470.0983885526657 204.56386075913906 169.182292714715 314.48697942495346 2168.7386388927698 719.23606231808662 2151.8035105615854 3981.2820114195347 739.38322100043297 993.9002256244421 2322.5863611996174 3727.5889478474855 226.94705606997013 625.16116932034492 2765.2445717155933 3629.7802795171738 129.78916220366955 2370.8220020979643 386.36999097466469 1711.8454384207726 767.04110625386238 394.86816082894802 57.767316579818726 1050.4050725698471 1015.3257596939802 2754.6572369933128 543.15331523120403
leaf_count=290 6825 1646 3766 8777 349 252 1315 3714 3008 5275 17113 1202 2304 4525 19711 786 1564 7970 5379 322 8655 1549 5486 2508 1057 97 2035 2951 13195 2671
internal_value=0.0279806 0.0144051 0.0592205 0.00630648 0.000726056 0.0381701 0.0144378 0.0491403 -0.00409592 0.0293948 -0.00470889 0.0526741 0.0475875 0.0437019 -0.0081339 0.0223565 0.0246481 0.0191905 0.0718749 0.0117046 0.00871419 0.0108423 0.0155224 0.0219467 0.0195829 0.0379028 0.0449647 0.0236406 -0.00962031 -0.00587705
internal_weight=44213.3 30820.2 13393.1 22986.8 16039.6 7833.42 4173.07 7454.82 11866.5 4880.55 11725.9 2952.87 2213.49 5286.08 7744.64 2670.98 2444.03 6947.19 5938.28 3968.51 3071.68 2757.19 4181.94 896.83 1818.87 2209.57 2044.31 1410.19 7025.4 3297.81
internal_count=136297 112088 24209 92919 70686 19169 14698 15064 55988 13376 55698 5793 4591 11350 38585 8004 7218 22233 9145 14349 11519 10204 14263 2830 5654 5372 4339 4008 35577 15866
is_linear=0
shrinkage=0.05


Tree=15
num_leaves=31
num_cat=0
split_feature=0 1 0 0 2 2 0 2 0 0 0 1 0 0 0 1 3 0 0 1 3 1 0 1 2 2 1 3 2 3
split_gain=6897.96 2137.39 674.794 591.65 381.941 370.298 221.636 197.608 134.33 99.141 98.43 88.9591 70.4838 66.9514 64.3313 62.9488 66.8579 61.2487 50.5911 45.7483 45.6717 41.6322 40.0787 39.4844 37.8143 36.5161 36.0434 35.4879 34.7169 35.3924
threshold=0.54930957500000011 9.8039723525418392 0.61678742500000017 0.48264976000000009 0.38750000000000007 0.63068181818181823 0.32794295000000001 0.58571428571428574 0.29281872500000006 0.48627706000000004 0.43329812500000003 17.819441796337902 0.58191935000000006 0.34394753000000006 0.65184185000000017 14.895710417466359 0.12499999998828126 0.36752751500000008 0.51772129500000019 6.6040387519717578 0.11111111110596701 5.9715553345062435 0.31146021000000007 16.910296551299265 0.38750000000000007 0.34848484848484851 13.475135559406041 0.19999999998333332 0.17424242424242423 0.022727272726885305
decision_type=2 2 2 2 2 2 2 2 2 2 2 2 2 2 2 2 2 2 2 2 2 2 2 2 2 2 2 2 2 2
left_child=1 3 7 4 8 9 -6 12 -1 15 13 17 -2 -10 -4 16 22 -7 21 -8 -21 -5 -3 -9 25 -11 -19 -17 -15 -30
right_child=2 5 14 18 6 11 19 23 10 24 -12 -13 -14 28 -16 27 -18 26 -20 20 -22 -23 -24 -25 -26 -27 -28 -29 29 -31
leaf_value=0.044683498800466653 0.0360142880893164 0.083321122282219287 0.062176408504898528 0.01051712553101229 0.064654265486673482 0.075600110390958181 0.0044982442837891642 0.05407923264182523 0.0060473888439402683 0.029083288401102192 0.00094888915939013397 0.066284380122051317 0.047882965160862649 -0.013584828463967143 0.072799141762701192 0.042805267734724407 0.0052458625785230927 0.036395641748907671 0.023356919554546912 0.019421503530000377 0.0034662956326758768 0.020633064388601938 0.022816497693817411 0.068487824992298191 0.038914754885680129 -0.0094902813045387637 0.049951619083147825 0.00053398367397646342 -0.025245581957113572 -0.0044134520521398922
leaf_weight=140.57201910018921 2931.1530981361866 27.864949032664299 2246.6348631978035 2480.41957937181 202.81699074804783 157.98333413898945 1590.2234732508659 1250.3515957295895 721.38102644681931 360.8672768175602 4864.1630801409483 693.18537512421608 2182.1784578561783 3258.2177820801735 3898.2884646058083 433.0651113986969 693.21000210940838 971.4305308163166 2781.8563104569912 1796.6514113992453 597.74246363341808 1724.0076038688421 1541.2205618917942 767.21773555874825 1846.6328358054161 73.922512322664261 990.13744796812534 56.080891102552414 221.02449336647987 2629.0488932877779
leaf_count=290 6717 45 3766 8777 349 239 6142 2335 3008 949 21370 1126 4253 17475 5917 1016 2278 2237 7970 6040 2167 5486 4631 1221 4328 230 1908 182 1148 12697
internal_value=0.0266358 0.0136687 0.056772 0.00598396 0.000689415 0.0362052 0.0136675 0.0463077 -0.0039027 0.0280846 -0.00448676 0.0507355 0.0410794 -0.00835808 0.0689154 0.0216944 0.0181778 0.0456504 0.0181261 0.0110723 0.0154384 0.0146651 0.023891 0.0595584 0.0357912 0.022525 0.0432383 0.0379588 -0.0100593 -0.00602899
internal_weight=44129.6 30853.7 13275.8 23008.1 16021.8 7845.6 4187.43 7130.9 11834.4 5032.86 11693.8 2812.74 5113.33 6829.67 6144.92 2751.44 2262.3 2119.55 6986.28 3984.62 2394.39 4204.43 1569.09 2017.57 2281.42 434.79 1961.57 489.146 6108.29 2850.07
internal_count=136297 112088 24209 92919 70686 19169 14698 14526 55988 13659 55698 5510 10970 34328 9683 8152 6954 4384 22233 14349 8207 14263 4676 3556 5507 1179 4145 1198 31320 13845
is_linear=0
shrinkage=0.05


Tree=16
num_leaves=31
num_cat=0
split_feature=0 2 0 0 2 1 1 1 0 0 0 1 0 0 3 1 0 0 0 2 3 1 0 3 1 3 2 1 0 0
split_gain=6357.89 1949.87 743.97 667.836 274.316 258.915 203.078 159.492 139.999 135.067 105.378 72.0712 69.0715 68.5045 65.6412 72.4072 65.4859 53.0568 47.485 46.829 41.0228 36.8748 36.1189 35.8504 34.6487 32.7794 31.9987 31.3686 29.6409 28.7731
threshold=0.54930957500000011 0.5634920634920636 0.46670217000000008 0.62078375000000008 0.38750000000000007 12.511197675964949 13.475135559406041 8.0299178265963178 0.35836883500000005 0.32144333000000008 0.31146021000000007 17.819441796337902 0.42574726000000007 0.51528068000000016 0.1578947368358726 6.6040387519717578 0.58191935000000006 0.65830273500000003 0.50964939500000017 0.15476190476190474 0.24999999995312502 9.0446892516071156 0.36406986500000005 0.039215686273933056 19.939339877895865 0.037735849056069713 0.61250000000000016 11.659545103593862 0.34703682000000008 0.34394753000000006
decision_type=2 2 2 2 2 2 2 2 2 2 2 2 2 2 2 2 2 2 2 2 2 2 2 2 2 2 2 2 2 2
left_child=1 2 4 6 9 8 16 13 -3 19 -6 20 29 -4 15 25 26 -5 27 -1 22 -10 -7 -14 -8 -12 -2 -9 -17 -11
right_child=3 5 7 17 10 11 24 18 21 12 14 -13 23 -15 -16 28 -18 -19 -20 -21 -22 -23 -24 -25 -26 -27 -28 -29 -30 -31
leaf_value=0.0061775347826096439 0.032846064317583988 0.064453969128023966 0.0094464447561791193 0.061329216040256651 0.067929599836981699 0.073717938328620197 0.053762734969196813 0.015659698016920239 0.017916669732924061 0.0022777897661222131 -0.022738756155724078 0.061288908039259717 -0.0053250092893223095 0.019795424367431702 -0.015285794192389063 0.045001346893630348 0.045662707812004689 0.071185062639107344 0.032563620167078991 0.041480508310182747 0.01300198549716413 0.029753568476024912 0.044097188782764217 0.0038206878209749297 0.068153239728396042 0.0044531154179700844 0.051275214307650953 0.029977631701058879 0.015764643024685176 -0.010198300305674821
leaf_weight=178.28953003883362 2721.0908305644989 246.64155107736588 4900.6738754361868 2246.6589988321066 79.960416078567505 108.91668820381165 1556.5240570306778 1143.6539146602154 1078.1700178980827 504.39510397613049 124.18124970793724 869.49886797368526 2189.5395384430885 2373.5228618085384 241.4709287583828 90.340196684002876 2307.0463577061892 3481.6020298451185 1528.0995654314756 198.54340726137161 100.62618051469326 1688.1330743134022 1867.9585203975439 2098.4714437276125 572.00196301937103 1030.948127746582 257.85898153483868 574.80086708068848 2146.2076632976532 5515.9969763606787
leaf_count=631 6326 432 17851 3766 133 169 2805 3641 3399 2202 545 1484 10420 6959 977 222 4525 5379 3836 526 259 4254 3814 9302 909 4013 499 1473 7070 28476
internal_value=0.0253705 0.0129738 0.00682921 0.0544965 -0.000555765 0.0386651 0.0445897 0.016936 0.0283584 -0.00462409 0.0111517 0.0492025 -0.0056989 0.0128232 0.00990209 0.0116953 0.0393388 0.0673195 0.0261511 0.0247777 0.044144 0.0251401 0.0457292 -0.000849278 0.0576299 0.00152988 0.0344413 0.0204489 0.0169456 -0.00915304
internal_weight=44021.8 30879 24919.1 13142.8 14398.3 5959.94 7414.52 10520.8 3012.94 10685.2 3713.11 2947 10308.4 7274.2 3633.15 3391.68 5286 5728.26 3246.55 376.833 2077.5 2766.3 1976.88 4288.01 2128.53 1155.13 2978.95 1718.45 2236.55 6020.39
internal_count=136297 112088 98277 24209 64517 13811 15064 33760 8085 51557 12960 5726 50400 24810 12827 11850 11350 9145 8950 1157 4242 7653 3983 19722 3714 4558 6825 5114 7292 30678
is_linear=0
shrinkage=0.05


Tree=17
num_leaves=31
num_cat=0
split_feature=0 2 0 0 2 1 2 0 0 1 0 0 0 2 1 3 0 1 0 0 3 0 1 3 0 1 1 3 3 1
split_gain=5871.12 1764.34 667.903 660.796 251.06 243.463 195.426 153.458 140.209 125.56 76.5996 69.1683 63.6071 62.3138 56.6126 77.1585 54.519 52.436 49.5615 47.5117 46.9424 44.5177 43.8732 42.7548 40.9419 39.8011 39.7524 36.2373 38.9075 34.3005
threshold=0.54930957500000011 0.5634920634920636 0.4741111300000001 0.62078375000000008 0.31666666666666671 13.475135559406041 0.58571428571428574 0.31146021000000007 0.35836883500000005 6.8971402301728659 0.29281872500000006 0.58454870000000014 0.42574726000000007 0.76388888888888895 7.3996373826246726 0.11999999999640001 0.65184185000000017 10.451114260423276 0.34394753000000006 0.51646935000000005 0.23529411763667823 0.43930782500000004 11.659545103593862 0.090909090902892523 0.50329804500000008 16.910296551299265 13.348166479437465 0.03519091847213681 0.089418976544376708 0.92620569524301211
decision_type=2 2 2 2 2 2 2 2 2 2 2 2 2 2 2 2 2 2 2 2 2 2 2 2 2 2 2 2 2 2
left_child=1 2 4 6 10 8 11 -6 -3 19 -1 -2 18 20 -9 -16 -5 24 -12 -4 -7 26 -11 -20 -10 -8 -17 29 -29 -14
right_child=3 5 9 16 7 13 25 14 17 22 12 -13 27 -15 15 21 -18 -19 23 -21 -22 -23 -24 -25 -26 -27 -28 28 -30 -31
leaf_value=0.035379281053705171 0.032696695567633709 0.062723895831427748 0.0087206743810412206 0.05837679045787815 0.064279675718814613 0.04539210405580945 0.050096492592342438 0.0020561200226816749 0.015281590598450865 0.020535354955768602 0.003778695460766434 0.044329725181298435 -0.0002556021700741529 0.060026690368796702 0.016491768497839246 -0.021871426797711726 0.06881074968997003 0.032272254047058857 -0.0099477008633491112 0.018443279814725658 0.0096720485936651491 0.011446789420129949 0.032395355173091465 -0.03463494259101578 0.033311836583863788 0.064316908363070108 0.01747517221226141 0.0073387614753986823 -0.013128366874666307 -0.013040251302194553
leaf_weight=116.1450317054987 3137.9745729714632 275.19384779036045 3624.2725402712822 1885.1185336261988 119.16083645820618 1467.0409891009331 1297.0452306270599 2932.3635160923004 1317.1416525095701 2854.497772693634 654.44434635341167 2155.5404170900583 1385.3450173437595 841.15686073899269 2212.0677038133144 310.69608311355114 3727.4735507816076 1541.0630480349064 4447.3688766956329 1923.3703827857971 98.129728376865387 317.73415940999985 1072.8535682857037 182.57963919639587 413.75549937784672 792.81772121787071 80.910103365778923 1590.6217427998781 271.88851165771484 844.43759052455425
leaf_count=251 7130 481 12942 3228 214 2909 2437 12108 4091 8414 2764 4203 6487 1439 7432 1300 5917 3597 23513 5617 254 1105 2561 990 1040 1294 256 6999 1265 4059
internal_value=0.0241793 0.0123186 0.0064807 0.0523749 7.63439e-05 0.0367749 0.0425449 0.00810748 0.028447 0.0169344 -0.00497688 0.0374337 -0.00547676 0.0490511 0.00696402 0.0118903 0.0653063 0.025564 -0.00910072 0.0120915 0.0431526 -0.0024592 0.0237752 -0.0109212 0.0195916 0.0554912 -0.013742 -0.000797116 0.00435098 -0.00509726
internal_weight=43890.2 30894.2 24940.8 12996 15465.8 5953.48 7383.38 5972.93 3547.15 9474.99 9492.83 5293.51 9376.69 2406.33 5853.77 2921.41 5612.59 3271.96 5284.39 5547.64 1565.17 709.34 3927.35 4629.95 1730.9 2089.86 391.606 4092.29 1862.51 2229.78
internal_count=136297 112088 98277 24209 68743 13811 15064 22415 9209 29534 46328 11333 46077 4602 22201 10093 9145 8728 27267 18559 3163 2661 10975 24503 5131 3731 1556 18810 8264 10546
is_linear=0
shrinkage=0.05


Tree=18
num_leaves=31
num_cat=0
split_feature=0 1 0 0 2 2 1 0 1 0 0 0 3 1 0 0 0 0 0 3 2 3 0 3 1 2 3 1 1 3
split_gain=5448.7 1704.06 529.992 490.818 328.754 280.723 183.443 178.396 121.938 103.856 81.9009 74.754 64.3233 63.4391 55.026 53.6843 48.9196 45.5947 39.1876 48.9204 36.0182 35.2133 37.4569 34.8334 32.6429 30.692 34.3712 38.0184 34.225 32.2938
threshold=0.56056511500000006 9.8039723525418392 0.48264976000000009 0.63474210000000009 0.58571428571428574 0.38750000000000007 13.217815192005768 0.32794295000000001 16.147995551530915 0.29281872500000006 0.50964939500000017 0.44513759000000003 0.18181818180578507 13.348166479437465 0.5350123750000001 0.34394753000000006 0.59000533000000011 0.33311529500000009 0.37481880000000006 0.045454545453684554 0.38750000000000007 0.11952380951999227 0.46174481500000003 0.19999999998333332 5.9715553345062435 0.17424242424242423 0.083333333328124967 3.6658459868813176 1.0000000180025095e-35 0.020408163264993704
decision_type=2 2 2 2 2 2 2 2 2 2 2 2 2 2 2 2 2 2 2 2 2 2 2 2 2 2 2 2 2 2
left_child=1 2 5 6 10 9 16 -7 15 -1 12 17 13 20 24 -6 -2 -11 -9 -20 -3 -21 -23 -17 -4 28 29 -28 -19 -27
right_child=3 4 14 -5 8 7 -8 18 -10 11 -12 -13 -14 -15 -16 23 -18 25 19 21 -22 22 -24 -25 -26 26 27 -29 -30 -31
leaf_value=0.039364509119148232 0.033656776459517465 0.0034433433672483114 0.010763830781625679 0.065401784315705452 0.070097836633488828 0.058185018637302979 0.056100760071247341 0.022831570877277982 0.054689502774726978 0.0087041592529233623 0.031845110699586864 0.00188873615073125 -0.0083187648913478664 0.031643513148225506 0.023523249201733355 0.036724709669920717 0.043949093219459348 -0.007054556664807643 -0.009273108962714733 0.011960365938556436 0.018883593357372091 -0.0098574431509375997 0.019528225443346717 0.018485519459980029 0.018316680398811069 -0.023136128013377583 0.017298835984381467 -0.020494794514653913 -0.01664442252822974 -0.00078203073447588578
leaf_weight=139.77837930619717 2407.6303472220898 522.33970728516579 3434.9071723520756 4583.1387947499752 111.78482782840729 195.57988214492798 2211.113353356719 471.48681518435478 1295.4827123433352 451.39533007144928 1479.0404795259237 3687.6672723293304 224.66837039589882 769.41898922622204 1992.0792965590954 2401.6732437312603 2218.1567059159279 2459.8226772993803 387.73741275072098 2618.0066693127155 1364.0682332366705 402.73468500375748 148.4023023545742 293.79519878327847 2451.6030651926994 171.54883119463921 76.799818009138107 498.20748710632324 1496.333409756422 2775.8417593240738
leaf_count=290 5296 1969 11606 7531 176 349 3868 1499 2308 1722 3437 15668 789 1927 5083 5250 4286 12971 1585 9195 3868 1575 495 722 7495 903 354 2513 8289 13278
internal_value=0.0230534 0.012564 0.00572691 0.0527415 0.0318416 0.000494664 0.0442546 0.0115507 0.0420005 -0.00347731 0.0222811 -0.00399276 0.0173704 0.0195435 0.0163403 0.0361448 0.0385921 -0.00672784 0.00928656 0.00749108 0.0146082 0.00954214 -0.00194489 0.0347367 0.0139094 -0.00765929 -0.00426467 -0.015447 -0.0106817 -0.00208312
internal_weight=43742.2 32322.2 23859.9 11420 8462.27 15981.3 6836.9 4223.95 4102.74 11757.4 4359.54 11617.6 2880.5 2655.83 7878.59 2807.25 4625.79 7929.95 4028.37 3556.88 1886.41 3169.14 551.137 2695.47 5886.51 7478.55 3522.4 575.007 3956.16 2947.39
internal_count=136297 115316 94870 20981 20446 70686 13450 14698 8456 55988 11990 55698 8553 7764 24184 6148 9582 40030 14349 12850 5837 11265 2070 5972 19101 38308 17048 2867 21260 14181
is_linear=0
shrinkage=0.05


Tree=19
num_leaves=31
num_cat=0
split_feature=0 1 0 0 2 2 0 1 1 0 0 0 0 0 3 1 0 1 0 3 2 3 1 3 0 2 3 3 2 1
split_gain=5061.93 1561.77 501.21 465.222 290.889 277.386 174.256 158.246 112.033 94.6503 81.6678 69.4452 55.4219 55.1155 54.8742 54.002 43.5533 42.3174 40.8538 41.3114 34.1775 33.8185 37.2132 31 27.3336 26.049 39.4034 24.9567 24.64 34.275
threshold=0.56241095000000019 10.090626883343505 0.48264976000000009 0.63474210000000009 0.58571428571428574 0.38750000000000007 0.32794295000000001 14.895710417466359 17.819441796337902 0.32144333000000008 0.42574726000000007 0.50964939500000017 0.53087835000000017 0.36406986500000005 0.18181818180578507 13.348166479437465 0.58191935000000006 2.7612452844470998 0.37340185000000009 0.045454545453684554 0.63068181818181823 0.19999999998333332 13.475135559406041 0.18749999999121095 0.46579630000000005 0.38750000000000007 0.04878048780398566 0.1578947368358726 0.17424242424242423 2.3072883871094914
decision_type=2 2 2 2 2 2 2 2 2 2 2 2 2 2 2 2 2 2 2 2 2 2 2 2 2 2 2 2 2 2
left_child=1 2 5 7 11 9 -7 16 13 17 28 14 20 -6 15 25 -2 -1 -8 -20 -4 22 -15 -21 -23 26 -3 -22 29 -11
right_child=3 4 12 -5 8 6 18 -9 -10 10 -12 -13 -14 21 -16 -17 -18 -19 19 23 27 24 -24 -25 -26 -27 -28 -29 -30 -31
leaf_value=0.0080490551069138053 0.032252603962802058 0.041441516697247799 0.012262356708481069 0.063711036423414066 0.064190719294475826 0.056693136946488934 0.022988100238801695 0.056453008815563782 0.056752779187908178 -0.0081784800990104892 0.00014577437956048148 0.030593727845292046 0.021873191662936851 0.03159115056209983 -0.0073977913937712724 0.029965488294062755 0.04196748313126325 0.042531569243068404 -0.0078527762222053259 0.0099594203334158887 0.025422335247790889 0.00075113987091135655 0.043698085938096522 -0.021944593506899035 0.029781093993606702 0.017759909103551835 -0.0023288186135212012 0.073395023941018225 -0.0047717892836095337 -0.020057633032581373
leaf_weight=229.81008613109589 1833.0734839588404 59.398739069700241 5447.7211605161428 4472.3461558818817 168.52633352577686 202.09355157613754 475.32245814800262 1600.9026878327131 859.57298894226551 2290.1106668710709 5644.8656762391329 1434.9623170495033 2595.0265648066998 1461.3715263456106 213.27301768958569 771.81529022753239 3112.7728751599789 145.18300700187683 395.63606080412865 3301.5544757395983 193.97048299014568 116.74272048473358 1122.0063136816025 77.936991289258003 265.47651815414429 1193.7725640982389 382.68639296293259 31.515349984169006 2652.8145294636488 826.31743328273296
leaf_count=769 4036 199 17776 7531 281 364 1474 2790 1497 12245 25150 3306 6715 3330 745 1927 6086 376 1613 11535 536 315 2194 330 592 3360 1458 66 12996 4705
internal_value=0.0219884 0.012075 0.00579935 0.051281 0.0311833 0.000697819 0.0113303 0.0427895 0.0407619 -0.00331788 -0.00412992 0.0217516 0.0158205 0.0363762 0.0169106 0.0190638 0.0383669 0.0213994 0.00917343 0.00743404 0.0130519 0.0347956 0.0368494 0.00922366 0.0209144 0.0139203 0.00355218 0.0321273 -0.00831344 -0.0113282
internal_weight=43578.6 32559.5 24509.9 11019.1 8049.6 16241.6 4452.54 6546.75 3993.7 11789.1 11414.1 4055.91 8268.23 3134.12 2620.95 2407.67 4945.85 374.993 4250.45 3775.13 5673.21 2965.6 2583.38 3379.49 382.219 1635.86 442.085 225.486 5769.24 3116.43
internal_count=136297 115854 96650 20443 19204 71557 15316 12912 8209 56241 55096 10995 25093 6712 7689 6944 10122 1145 14952 13478 18378 6431 5524 11865 907 5017 1657 602 29946 16950
is_linear=0
shrinkage=0.05


end of trees

feature_importances:
sbert_sim=265
bm25_score=156
overlap_score=107
jaccard_score=72

parameters:
[boosting: gbdt]
[objective: binary]
[metric: auc,binary_logloss]
[tree_learner: serial]
[device_type: cpu]
[data_sample_strategy: bagging]
[data: ]
[valid: ]
[num_iterations: 1000]
[learning_rate: 0.05]
[num_leaves: 31]
[num_threads: 20]
[seed: 42]
[deterministic: 0]
[force_col_wise: 0]
[force_row_wise: 0]
[histogram_pool_size: -1]
[max_depth: -1]
[min_data_in_leaf: 20]
[min_sum_hessian_in_leaf: 0.001]
[bagging_fraction: 1]
[pos_bagging_fraction: 1]
[neg_bagging_fraction: 1]
[bagging_freq: 0]
[bagging_seed: 400]
[bagging_by_query: 0]
[feature_fraction: 1]
[feature_fraction_bynode: 1]
[feature_fraction_seed: 30056]
[extra_trees: 0]
[extra_seed: 12879]
[early_stopping_round: 0]
[early_stopping_min_delta: 0]
[first_metric_only: 0]
[max_delta_step: 0]
[lambda_l1: 0]
[lambda_l2: 0]
[linear_lambda: 0]
[min_gain_to_split: 0]
[drop_rate: 0.1]
[max_drop: 50]
[skip_drop: 0.5]
[xgboost_dart_mode: 0]
[uniform_drop: 0]
[drop_seed: 17869]
[top_rate: 0.2]
[other_rate: 0.1]
[min_data_per_group: 100]
[max_cat_threshold: 32]
[cat_l2: 10]
[cat_smooth: 10]
[max_cat_to_onehot: 4]
[top_k: 20]
[monotone_constraints: ]
[monotone_constraints_method: basic]
[monotone_penalty: 0]
[feature_contri: ]
[forcedsplits_filename: ]
[refit_decay_rate: 0.9]
[cegb_tradeoff: 1]
[cegb_penalty_split: 0]
[cegb_penalty_feature_lazy: ]
[cegb_penalty_feature_coupled: ]
[path_smooth: 0]
[interaction_constraints: ]
[verbosity: 1]
[saved_feature_importance_type: 0]
[use_quantized_grad: 0]
[num_grad_quant_bins: 4]
[quant_train_renew_leaf: 0]
[stochastic_rounding: 1]
[linear_tree: 0]
[max_bin: 255]
[max_bin_by_feature: ]
[min_data_in_bin: 3]
[bin_construct_sample_cnt: 200000]
[data_random_seed: 175]
[is_enable_sparse: 1]
[enable_bundle: 1]
[use_missing: 1]
[zero_as_missing: 0]
[feature_pre_filter: 1]
[pre_partition: 0]
[two_round: 0]
[header: 0]
[label_column: ]
[weight_column: ]
[group_column: ]
[ignore_column: ]
[categorical_feature: ]
[forcedbins_filename: ]
[precise_float_parser: 0]
[parser_config_file: ]
[objective_seed: 16083]
[num_class: 1]
[is_unbalance: 0]
[scale_pos_weight: 3]
[sigmoid: 1]
[boost_from_average: 1]
[reg_sqrt: 0]
[alpha: 0.9]
[fair_c: 1]
[poisson_max_delta_step: 0.7]
[tweedie_variance_power: 1.5]
[lambdarank_truncation_level: 30]
[lambdarank_norm: 1]
[label_gain: ]
[lambdarank_position_bias_regularization: 0]
[eval_at: ]
[multi_error_top_k: 1]
[auc_mu_weights: ]
[num_machines: 1]
[local_listen_port: 12400]
[time_out: 120]
[machine_list_filename: ]
[machines: ]
[gpu_platform_id: -1]
[gpu_device_id: -1]
[gpu_use_dp: 0]
[num_gpu: 1]

end of parameters

pandas_categorical:[]
